{"b": {"0": {"0": -4.645190296338469, "1": -4.647559474267078, "2": -4.646327058178819, "3": -4.64745028493422}, "1": {"0": -3.9667553445260677, "1": -3.966759946358475, "2": -3.9668358972002737, "3": -3.966888128846565}, "2": {"0": -3.601865621358982, "1": -3.6018593219393322, "2": -3.6018671995131264, "3": -3.6018518962076356}, "3": {"0": -3.457534151103235, "1": -3.4575350090007966, "2": -3.4575322745641968, "3": -3.4575350358034385}, "4": {"0": -3.381366300489609, "1": -3.3813667996965284, "2": -3.3813667580184688, "3": -3.3813662923640493}, "5": -3.293305263980833}, "W": {"0": {"0": [-0.85153076540081041, -0.17030444022663868, -0.28799313207985799, 0.81311930282431011, 1.0227416071549518, 0.51061831075593578, 2.2294344041974044, 0.88752767397584276, 0.5378707149595866, 0.22272439743154851, -0.35816748045113633, -0.34749619928315217, -0.79253664644932653, 0.57980178891610501, 1.1191552134677765, 1.0357885570547125, 1.2816021769751331, -0.32498379576947389, 0.14175330243843617, 0.91429961523504855, 0.38572866799361544, 0.082169819878283479, 1.4910825694213687, 1.1170178083589728, -3.065876131367252, -0.37706008974296468, -9.395878357874663, 1.4032583595262753, -1.1710608402666014, -0.13623087510678542, -0.19552368590130434, -5.0902859619882808, -0.56866062155888331, -0.41817671615129698, -2.2616120550949246, 0.79612521084389565, -0.48863918898072756, 0.21652784026544125, -0.99753180297035438, -0.58118883993397163, -9.4419771724399535, -2.7767854045010947, -1.2219575438701018, -1.6888107360149958, -1.1702868467894512, -1.8717568782038663, -1.0442498036190435, -2.6590418470926624, -1.221278439406968, -0.74190045178375708, -0.53655338320930845, 1.5846308932346764, 3.5029949675508756, -0.25410266030041806, -0.036611865361273095, -0.065554773797517008, -0.016407915033702172, 0.65542930672189659, 0.16455187365496191, 0.71412566322137128], "1": [-0.85086915237386795, -0.17122038561404418, -0.28834655152891991, 0.81283134701003446, 1.0225679417087992, 0.50756421787461681, 2.2296430835983347, 0.88770661847179477, 0.53602102859465806, 0.22159986529609427, -0.35748103325997332, -0.34786860036430811, -0.79088814269484731, 0.57994193533443572, 1.1184735280987519, 1.0355916687671975, 1.2781771504982458, -0.32458146332130561, 0.14183525962639151, 0.91377142234018094, 0.38532953549415633, 0.081948777275723098, 1.4901517654918388, 1.1172249181408629, -3.0639485425731965, -0.3785347218020832, -9.311870946258697, 1.40243311543421, -1.1711675935302148, -0.13483628131594869, -0.19572425750827749, -5.0843067822630168, -0.56918725447009355, -0.42835585835301915, -2.2633748796688651, 0.79629604592397518, -0.48930368383886408, 0.21655691749349962, -0.99703976670632599, -0.58111867800167849, -9.2712382582213912, -2.7750075612577421, -1.2211266464165556, -1.688272518436166, -1.1694610530867515, -1.8714135504100307, -1.0439393845357199, -2.6556203753443013, -1.2209470755714067, -0.7417607159419094, -0.53773134747917783, 1.5844539757574416, 3.498160756028287, -0.25394399059898315, -0.036555548921201969, -0.065365721384630593, -0.016596820188210782, 0.65623610570491675, 0.16321704208569884, 0.71577254944185686], "2": [-0.85397838018017203, -0.16707599007753235, -0.28756411386928565, 0.81362591762833913, 1.0232624157232049, 0.51937196283847475, 2.228801079747095, 0.88682303469403045, 0.54285167605508489, 0.22594946474955574, -0.36037641407288218, -0.34631469369791978, -0.79807858601181203, 0.57989938430140775, 1.1209324189371022, 1.0364473885486585, 1.2920168958100344, -0.3265985370771885, 0.14172520719055792, 0.91605301836850062, 0.3868594039494922, 0.082518322185798687, 1.4940268922630446, 1.1168472320428771, -3.0725054533512424, -0.37248083506153806, -9.6478240908812687, 1.4062944731415872, -1.1713531297741864, -0.14047929201379025, -0.19473600809646799, -5.1667169226022969, -0.56720486363223765, -0.38996419182792624, -2.2572513854285803, 0.7953110390009962, -0.48665329744094654, 0.2167886627706879, -0.99910601974700763, -0.58187064216724893, -9.9903745482058479, -2.7831668305515613, -1.2250305805494959, -1.6906056430310263, -1.1731972134664195, -1.8732230401388648, -1.045259286102906, -2.6691736927617784, -1.2228249635656294, -0.74312446047599712, -0.53309286036713921, 1.5857213027547734, 3.5185641810877355, -0.25489076363647573, -0.035564503529226146, -0.066040424744400666, -0.016118439624194476, 0.65189831480415539, 0.16750846797490165, 0.71212614645494976], "3": [-0.8524364045808398, -0.16865422396494217, -0.28860970140688341, 0.81315974388944767, 1.0228159048280285, 0.51267423021079217, 2.2288366998866578, 0.8875064820642159, 0.53869527533751282, 0.22357020526288668, -0.35927230337843297, -0.34678182678193231, -0.79425615856214982, 0.57990083418154847, 1.1189312832148262, 1.0361915450766119, 1.2839966336499011, -0.3240841654508077, 0.14164972297975587, 0.91460184363221264, 0.38621501803095204, 0.082180971514682288, 1.4919199005666697, 1.1169242238534636, -3.0681996494139598, -0.37593186371641346, -9.461756136929651, 1.4037120734631015, -1.1711964776922787, -0.13734363795349863, -0.19476488083624852, -5.9230438238904783, -0.56798129304406553, -0.40898811377805561, -2.260408017635668, 0.7971855456450444, -0.48811893805541334, 0.21646030769014807, -0.99840906541382701, -0.58164243575535235, -10.136292228385901, -2.7787750625750451, -1.2229440111845054, -1.6893732789461811, -1.1710331819258364, -1.8715392454194282, -1.0439576597198372, -2.6610916405328116, -1.2218385313430375, -0.74212184201915021, -0.53569265090244467, 1.5851474377361738, 3.5075222769297052, -0.2538585859965195, -0.035087108686015847, -0.065903952220232209, -0.016293235238563755, 0.65252256216245352, 0.1660738709020663, 0.71363126697671564]}, "1": {"0": [2.2979182239459712, 1.7688187176499595, 2.3830580484249273, 1.451590566875723], "1": [1.7583970361482621, 2.0174727393295506, 2.3482853448187266, 1.7772194793406655], "2": [2.2197135352979713, 2.0234847873245485, 1.9105534679590952, 1.7477325859318644], "3": [1.1165851001012617, 2.8516901130062116, 1.7346430028165696, 2.198613608540172]}, "2": {"0": [1.7320099040449493, 1.3755573020788923, 1.4941365021693969, 2.4967158071973405], "1": [1.9594262260475361, 1.7543614051054512, 1.4177833832880282, 1.9668511261437216], "2": [1.0668851303188833, 1.949731385630159, 1.4979194595236762, 2.5838828579878994], "3": [2.165825963201804, 2.4490579301102149, 0.94382193596688779, 1.5397193579553037]}, "3": {"0": [1.6107319415727741, 0.63996982561381255, 2.2855923030281411, 2.2542442334314119], "1": [1.615342071109189, 1.5472488801147775, 2.1729887146228379, 1.4549586673516814], "2": [0.39621774095243917, 2.2129562324257042, 1.8701953437865599, 2.3111689392166337], "3": [1.1830254563438576, 1.7972961566025034, 2.4518527029298953, 1.3583640175462621]}, "4": {"0": [1.0653911306670232, 1.1119448182223335, 2.4603993503755461, 1.9957072732378749], "1": [2.0072318768139947, 2.2725834646396428, 0.86737366053858866, 1.4862539592285822], "2": [0.96896038665386608, 2.2145983262649422, 1.3107683340993577, 2.1391158823604068], "3": [2.2365406959264877, 1.3582875466821653, 2.1000509066344941, 0.93856341622105621]}, "5": [1.2783774752284431, 1.6046074734915006, 1.5791290059921628, 1.9883054920994976]}}