{"b": 1.8869192795061203, "W": [0.381323359031846, 0.12772709621087627, 0.03573170274820725, -0.16628757798889529, -0.43153004308127824, -0.21747792539182523, -0.96796542651008155, -0.44735961089199594, -0.0096888464102640199, 0.020966004011545008, -0.088642383612034345, 0.22528588977740391, 0.16138387178671812, -0.036233586098825106, -0.15532974160580479, -0.54507938881651763, -0.12050338470446889, -0.11709611463463325, -0.053522329877362822, -0.12172424359103096, -0.19531576785779128, -0.23520380718709968, -0.5228387941203918, -0.74134593891762768, 0.43758283089796268, 0.086261945332611001, 0.12887734987415569, -0.14769429172083517, 0.066195102368723113, 0.060850746355140435, 0.20390023689259637, 0.26602541918028172, 0.3058581775069309, -0.66444317631292771, 0.39254789473791313, -0.26348111039566985, 0.26750106503425664, 0.012642671608856303, 0.20127204649155392, 0.0062013685775850836, 0.00085555066319811888, 0.28412405305291305, -0.11096372963795856, 0.2872000402266755, 0.25318105555063036, 0.48448740993164263, 0.44296284757109355, 0.49634117722740706, 0.41551833353391798, 0.20253125862084867, 0.25713006338820127, -0.83909213870651977, -1.1225944334991791, 0.021169216291126128, -0.00016121689189848722, 0.042356994806899292, 0.0096352911559549684, -0.2286319072665593, -0.18510392537957374, -0.1516165586667097]}