{"b": 0.018633657345671947, "W": [-0.090347235960742373, -0.030319658537395319, -0.0084167283498749849, 0.039473923763308161, 0.10256293884339412, 0.051710173519284745, 0.22974405292769645, 0.10623587822734006, 0.0023968492578454489, -0.0049342859736711507, 0.021077822392203398, -0.053508778850914207, -0.038101966648291317, 0.008532661674397167, 0.036818701632968166, 0.12953281146484297, 0.028699082001279273, 0.027865528277600873, 0.012738423711769989, 0.028991471450927848, 0.046480734153875734, 0.055745303908259748, 0.12426441932626359, 0.17585869841382326, -0.10395478545123533, -0.020594467253014098, -0.030635891727246126, 0.034882623654962197, -0.015655959127760979, -0.014403154720655762, -0.048115412169411731, -0.0643630137734479, -0.072647757358537748, 0.15832313818706958, -0.092993520531921212, 0.062504752023229679, -0.063571320764931744, -0.0030236244036848632, -0.047763165863746349, -0.0013066832596859276, -0.00039460753022535163, -0.067555680599314841, 0.026214865863067666, -0.068189568788374497, -0.060104999454882242, -0.11502950025127663, -0.10256257674461035, -0.11743089595683506, -0.098286073005732638, -0.047945329166768864, -0.060558235473075164, 0.199257518066562, 0.26601267619446334, -0.0049019544252842454, 1.4372576429638763e-05, -0.010079157289969427, -0.0022736787578400853, 0.054448318144438589, 0.044117527752752912, 0.035778359822377592]}