{"b": -4.4126525606548146, "W": [-0.83916871497697565, -0.19222637649077368, -0.27185109051103024, 0.82778690029762181, 1.0217267543175601, 0.5126085537609667, 2.2279911030276724, 0.88726971599270754, 0.53079393487527948, 0.22575007716531753, -0.35163180069170297, -0.35082665816199182, -0.77421218201219255, 0.56566774108318674, 1.1427953637567569, 1.0349416103565616, 1.2734037934258018, -0.31502859211300588, 0.1347920420198308, 0.90331933298737965, 0.38834387756852318, 0.095180572905127075, 1.4895775330858483, 1.1024364164869636, -3.03737723283382, -0.38840801747214687, -8.9658360412279041, 1.3847929709855977, -1.1493556073936833, -0.13268226171625958, -0.21313927692572171, -4.4227354104026197, -0.57177396482601628, -0.48878854226982443, -2.2510112550037551, 0.81233197869346152, -0.48823536946467588, 0.2093204923209224, -0.99320583879356439, -0.57197265499839756, -8.6445633424313559, -2.7623022980711158, -1.2057529660534172, -1.6829870813488479, -1.1589266706251198, -1.8658814227060803, -1.0286508970466304, -2.685573146903184, -0.59896005714833389, -0.35319562002221255, -0.26729242717926943, 0.78683984553066877, 1.7453479120902464, -0.11620268052837784, -0.014834139802950397, -0.037964426197344477, -0.0031869548814370372, -0.59896005714833389, -0.35319562002221255, -0.26729242717926943, 0.78683984553066877, 1.7453479120902464, -0.11620268052837784, -0.014834139802950397, -0.037964426197344477, -0.0031869548814370372, 0.61526425800161422, 0.23703154184588707, 0.60596885281343682]}