{"b": -4.6532016581457718, "W": [-0.85422349722142854, -0.16632391378245434, -0.28833550996461565, 0.81307607626814338, 1.0231690943101976, 0.51836574834604676, 2.2287376103919767, 0.88683664536178186, 0.54246485051804494, 0.22543948192269381, -0.36058636061874616, -0.34598254455553601, -0.79816222580527119, 0.58029087878750263, 1.1195492855717237, 1.036358253796748, 1.2911260538811404, -0.32609052197247762, 0.14191639978181844, 0.91625102199254271, 0.38667230082343396, 0.08210671896862673, 1.4938263494526987, 1.1172311064418348, -3.0730302830895622, -0.37272582670331722, -9.6353828237172525, 1.4063037149181483, -1.1722066983422905, -0.14007261117394718, -0.19396455411008354, -5.7615184992847066, -0.56727679246038776, -0.38960309988663661, -2.2580353300604994, 0.79585043270094424, -0.48689140363165634, 0.21693684557831588, -0.9993715920625591, -0.58218405086494251, -10.063678459449854, -2.7829750511759324, -1.2252219006301006, -1.6906444167670984, -1.1733458304937383, -1.873179933456107, -1.0456905115147677, -2.6675106482083319, -1.2235348056982658, -0.74390419001970909, -0.53359660658596764, 1.5860173966134918, 3.5177576985027756, -0.25547224592947471, -0.036032429060656297, -0.065678206287758334, -0.016444441232444314, 0.65367460938109601, 0.16493644414618808, 0.71562535614793044]}